digraph Tree {
node [shape=box] ;
0 [label="returnOnEquity <= -0.817\nentropy = 0.9207\nsamples = 1686\nvalue = [566, 1120]"] ;
1 [label="trailingPE <= -0.3532\nentropy = 0.8113\nsamples = 360\nvalue = [270, 90]"] ;
0 -> 1 [labeldistance=2.5, labelangle=45, headlabel="True"] ;
2 [label="trailingPE <= -0.8592\nentropy = 0.1858\nsamples = 106\nvalue = [103, 3]"] ;
1 -> 2 ;
3 [label="entropy = 0.0\nsamples = 39\nvalue = [39, 0]"] ;
2 -> 3 ;
4 [label="trailingPE <= -0.8501\nentropy = 0.2638\nsamples = 67\nvalue = [64, 3]"] ;
2 -> 4 ;
5 [label="entropy = 0.0\nsamples = 1\nvalue = [0, 1]"] ;
4 -> 5 ;
6 [label="entropy = 0.1959\nsamples = 66\nvalue = [64, 2]"] ;
4 -> 6 ;
7 [label="returnOnEquity <= -1.096\nentropy = 0.9272\nsamples = 254\nvalue = [167, 87]"] ;
1 -> 7 ;
8 [label="returnOnEquity <= -1.5495\nentropy = 0.6122\nsamples = 106\nvalue = [90, 16]"] ;
7 -> 8 ;
9 [label="entropy = 0.0\nsamples = 3\nvalue = [0, 3]"] ;
8 -> 9 ;
10 [label="entropy = 0.547\nsamples = 103\nvalue = [90, 13]"] ;
8 -> 10 ;
11 [label="trailingPE <= 0.1676\nentropy = 0.9988\nsamples = 148\nvalue = [77, 71]"] ;
7 -> 11 ;
12 [label="entropy = 0.8767\nsamples = 54\nvalue = [38, 16]"] ;
11 -> 12 ;
13 [label="entropy = 0.979\nsamples = 94\nvalue = [39, 55]"] ;
11 -> 13 ;
14 [label="trailingPE <= -0.4259\nentropy = 0.766\nsamples = 1326\nvalue = [296, 1030]"] ;
0 -> 14 [labeldistance=2.5, labelangle=-45, headlabel="False"] ;
15 [label="returnOnEquity <= 0.1884\nentropy = 0.9892\nsamples = 483\nvalue = [212, 271]"] ;
14 -> 15 ;
16 [label="trailingPE <= -1.3608\nentropy = 0.9827\nsamples = 272\nvalue = [157, 115]"] ;
15 -> 16 ;
17 [label="entropy = 0.5255\nsamples = 59\nvalue = [52, 7]"] ;
16 -> 17 ;
18 [label="entropy = 0.9999\nsamples = 213\nvalue = [105, 108]"] ;
16 -> 18 ;
19 [label="trailingPE <= -1.7108\nentropy = 0.8277\nsamples = 211\nvalue = [55, 156]"] ;
15 -> 19 ;
20 [label="entropy = 0.7496\nsamples = 28\nvalue = [22, 6]"] ;
19 -> 20 ;
21 [label="entropy = 0.6808\nsamples = 183\nvalue = [33, 150]"] ;
19 -> 21 ;
22 [label="returnOnEquity <= -0.376\nentropy = 0.4679\nsamples = 843\nvalue = [84, 759]"] ;
14 -> 22 ;
23 [label="trailingPE <= 0.5101\nentropy = 0.6933\nsamples = 231\nvalue = [43, 188]"] ;
22 -> 23 ;
24 [label="entropy = 0.8512\nsamples = 130\nvalue = [36, 94]"] ;
23 -> 24 ;
25 [label="entropy = 0.3633\nsamples = 101\nvalue = [7, 94]"] ;
23 -> 25 ;
26 [label="trailingPE <= 0.6778\nentropy = 0.3546\nsamples = 612\nvalue = [41, 571]"] ;
22 -> 26 ;
27 [label="entropy = 0.4387\nsamples = 364\nvalue = [33, 331]"] ;
26 -> 27 ;
28 [label="entropy = 0.2056\nsamples = 248\nvalue = [8, 240]"] ;
26 -> 28 ;
}